digraph Tree {
node [shape=box, fontname="helvetica"] ;
edge [fontname="helvetica"] ;
0 [label="lstat <= 9.725\nsquared_error = 84.805\nsamples = 404\nvalue = 22.449"] ;
1 [label="rm <= 7.141\nsquared_error = 77.297\nsamples = 167\nvalue = 29.825"] ;
0 -> 1 [labeldistance=2.5, labelangle=45, headlabel="True"] ;
2 [label="rm <= 6.611\nsquared_error = 39.847\nsamples = 127\nvalue = 26.482"] ;
1 -> 2 ;
3 [label="crim <= 0.083\nsquared_error = 35.557\nsamples = 81\nvalue = 24.556"] ;
2 -> 3 ;
4 [label="squared_error = 12.792\nsamples = 41\nvalue = 23.107"] ;
3 -> 4 ;
5 [label="squared_error = 54.537\nsamples = 40\nvalue = 26.04"] ;
3 -> 5 ;
6 [label="squared_error = 29.361\nsamples = 46\nvalue = 29.874"] ;
2 -> 6 ;
7 [label="squared_error = 48.038\nsamples = 40\nvalue = 40.44"] ;
1 -> 7 ;
8 [label="lstat <= 16.085\nsquared_error = 24.739\nsamples = 237\nvalue = 17.251"] ;
0 -> 8 [labeldistance=2.5, labelangle=-45, headlabel="False"] ;
9 [label="ptratio <= 18.75\nsquared_error = 10.756\nsamples = 119\nvalue = 20.359"] ;
8 -> 9 ;
10 [label="squared_error = 9.199\nsamples = 52\nvalue = 21.502"] ;
9 -> 10 ;
11 [label="squared_error = 10.164\nsamples = 67\nvalue = 19.472"] ;
9 -> 11 ;
12 [label="nox <= 0.603\nsquared_error = 19.276\nsamples = 118\nvalue = 14.117"] ;
8 -> 12 ;
13 [label="squared_error = 13.884\nsamples = 40\nvalue = 17.6"] ;
12 -> 13 ;
14 [label="squared_error = 12.63\nsamples = 78\nvalue = 12.331"] ;
12 -> 14 ;
}